865
-2340
-1051
-1221
-4598
-2739
-393
-3631
-1721
873
-2365
-302
1970
-1057
538
1259
-1653
-914
850
-1692
-1069
1585
-936
-320
1708
-1243
-630
887
-2204
-834
1103
-2181
-866
976
-2140
-1341
827
-2567
-1869
-75
-3101
-2257
-184
-2469
-1119
-278
-2134
-604
-413
-2587
-464
-875
-3211
-1573
-1376
-2901
-2199
-1066
-2229
-1830
-400
-1899
-1162
658
-799
271
1178
-384
467
1287
-643
320
1828
-746
997
-927
-3106
-820
-1610
-3753
-1268
-1504
-3668
-1535
-592
-2908
-567
76
-1972
-7
-1002
-3522
-2094
-2213
-3755
-2363
-2286
-2921
-1655
-1798
-2331
-833
-853
-1874
-510
-1074
-2322
-903
-2797
-3686
-2112
-3656
-4447
-2658
-1711
-2854
-1127
-185
-1832
-276
-629
-1652
420
1100
-214
1724
2088
661
2764
2684
1216
3666
2423
1030
2956
2813
1119
2222
3207
1429
2108
2824
901
2258
1953
-266
1585
1215
-809
792
1205
-849
243
62
-2124
-1482
976
-1153
-826
1894
-505
-101
3480
1439
1691
3451
1419
1760
1772
-267
-27
1953
-382
352
2373
-409
660
2914
386
1663
3742
1275
2938
4052
1269
3532
3646
1041
2727
2383
259
1470
588
-2442
-826
-70
-3208
-1237
1160
-1752
389
1826
-905
1190
2297
-186
1211
1420
-941
91
1411
-925
-108
2974
651
1199
2547
-227
355
873
-2410
-1058
438
-2552
-849
980
-2297
-709
1241
-2020
-1294
1742
-1305
43
703
-1516
53
187
-1934
-495
39
-1949
64
-507
-2735
-1416
-974
-2709
-1826
-217
-1394
-765
104
-1583
-600
386
-1360
14
1472
-254
665
2264
258
1412
1929
83
2009
528
-1311
1313
-153
-2081
695
-204
-2406
-157
98
-2186
-233
-35
-1810
-510
220
-1799
-1189
-570
-1559
-887
-465
-982
-496
-459
-1417
-525
-68
-1316
-226
-34
-1043
-48
-1364
-2023
-733
-1949
-2914
-1608
-642
-1550
-389
-473
-1454
-84
-855
-1282
506
460
-209
1398
1212
-28
1943
1998
391
2829
3059
1119
3039
3066
1081
2226
2663
1316
2045
2057
285
1398
971
-913
591
629
-916
399
653
-1033
-35
-602
-2681
-2059
1033
-966
-1036
2670
849
846
2971
1092
1483
3212
941
1102
2064
-346
-336
2035
-444
-141
3335
111
1019
2929
-224
1173
2701
-88
1763
3383
714
2970
3087
663
2728
1705
-255
1656
840
-2261
-1027
664
-1848
-874
1869
-728
513
2918
575
2398
3351
1019
2497
2541
313
1914
2201
357
1365
3161
1374
1982
2886
726
1292
2312
-597
214
1346
-1473
-629
841
-2028
-782
653
-2014
-1015
1909
-876
504
1309
-814
204
508
-1525
-1023
548
-1579
-459
573
-1510
-677
1295
-779
-335
1067
-142
636
416
-1454
-463
835
-1069
-120
1377
-49
810
2323
900
1852
2520
1081
2863
1028
-522
2092
618
-1077
1545
173
-1571
287
593
-1470
189
871
-511
298
1478
-39
556
976
116
267
762
272
-54
-269
-1124
-1219
-417
-1460
-1281
221
-583
327
-456
-1101
-80
-146
-1035
-44
328
-279
806
-867
-1332
-22
-18
-470
1179
925
529
1572
76
-488
797
1528
44
1824
2989
813
2320
3848
1540
2396
3899
1986
2339
2316
251
879
723
-1233
10
568
-1089
-161
327
-1254
-544
115
-1874
-1747
939
-918
-1418
2919
1380
572
3025
940
826
2368
-263
-63
2360
-276
-428
2395
-319
-548
2656
-323
175
2464
-126
1190
2567
-179
2243
2705
217
2664
2494
376
1899
1929
67
1577
2447
-917
302
150
-2441
-1636
653
-2215
-1508
1988
-476
936
2280
-228
1142
2637
83
1304
2558
689
1550
3278
1675
2065
3518
1463
1712
2392
-286
534
1327
-1702
-677
-133
-3179
-2171
-338
-2786
-1613
269
-2443
-926
1242
-1478
-112
1184
-1184
-723
896
-1530
-1158
1314
-913
-556
2719
-116
286
1336
-562
294
-242
-2149
-1008
565
-1410
-294
1051
-474
735
2038
897
1945
3226
2247
3878
1364
265
2358
1168
142
1782
476
-393
759
142
-1179
242
1066
-243
864
1250
-121
512
1433
82
51
560
-364
-1180
-677
-1689
-1733
-1406
-2490
-1621
-272
-1087
269
-883
-908
106
-1116
-1393
-129
-788
-1035
151
-1611
-2171
-776
14
-804
527
580
134
787
17
-869
77
204
-1652
-124
1158
-1100
499
1758
-128
1279
2160
62
1347
1754
-617
524
1056
-1497
-535
183
-2080
-1173
-560
-2874
-2072
-1423
-3792
-3556
-737
-2564
-2568
1680
30
-339
2612
804
526
2292
-210
-464
2107
-684
-1570
1371
-1233
-1934
1343
-1396
-1315
1340
-784
-184
2162
-39
1746
2012
-110
2185
1692
-270
1173
1249
-224
1309
1484
-1809
-391
-424
-3363
-1904
-109
-3143
-2078
1148
-1597
-127
1221
-1618
-58
1590
-992
224
1954
-184
792
2697
958
2023
3657
1404
2136
2255
-22
504
319
-2258
-1299
-1347
-4092
-2774
-1623
-4012
-2862
-119
-2505
-1458
515
-1860
-822
396
-2088
-1779
1262
-1209
-1024
2430
69
564
3525
635
1118
1748
-333
515
130
-1656
-767
521
-1439
-373
1356
-126
1491
2657
1571
2917
2936
2022
3565
1747
692
1987
1739
935
1751
1050
594
1131
286
-933
-626
1053
-549
176
730
-860
-162
670
-610
-988
-141
-917
-2035
-450
-1312
-1441
-536
-1748
-669
-390
-999
-218
-1347
-1241
-234
-1333
-1357
71
-624
-732
330
-454
-1333
-220
512
-535
422
604
13
725
-222
-1316
-783
-455
-2577
-1215
299
-2020
-381
954
-798
883
1624
-337
1067
1570
-965
630
457
-2389
-789
-201
-2811
-1664
-408
-3132
-2210
-279
-3100
-2075
-918
-2912
-2013
402
-1285
-1002
1444
-310
-650
1695
-428
-1250
1304
-1123
-2253
2027
-789
-1221
2045
-819
-934
1884
-626
-58
2368
316
1858
2818
1310
3062
2264
465
1728
1292
-375
1235
636
-2482
-1516
191
-2998
-2133
367
-3009
-1718
1166
-2254
-498
864
-2137
-684
772
-1798
-317
842
-1249
189
1607
27
1278
1586
-185
1144
336
-1868
-841
22
-2657
-1603
-1063
-3714
-2386
-1159
-3998
-2823
-449
-2835
-2278
-357
-2538
-1943
-102
-2406
-1516
833
-1697
-998
2447
-178
697
3426
597
1449
2428
40
291
1094
-861
-547
1460
-799
210
2008
485
2416
3158
2086
3369
2900
1676
2734
1715
546
1777
1732
718
2048
1088
219
1287
1451
57
478
614
-709
-378
-39
-1834
-1277
556
-1062
-1447
759
-41
-903
353
-566
-251
-640
-1773
-617
-201
-317
578
-274
213
1261
-899
-398
1023
-226
-51
1218
-210
-1049
278
-406
-872
355
-287
-643
189
-720
-1673
-975
-567
-2532
-1476
-40
-2181
-936
753
-1142
246
960
-1045
-110
401
-2094
-896
-587
-3122
-1147
-345
-2718
-782
-164
-2538
-824
-174
-1988
-154
-682
-2134
-571
105
-1246
-601
1358
-351
-69
2107
-284
-533
1335
-1258
-1797
2144
-626
-978
2655
131
227
2902
410
1322
2257
461
2124
2427
1283
3110
1803
406
2003
1674
253
1667
1357
-1572
-543
787
-2143
-1228
1153
-2122
-716
1048
-1814
4
833
-1842
356
705
-1622
336
1427
-707
705
1998
339
1387
1514
125
1546
863
-1264
-207
858
-1794
-581
-552
-2901
-1604
-313
-2832
-1691
-358
-2794
-2085
-191
-2585
-1749
520
-2117
-1163
702
-2018
-1185
1835
-1028
-211
2345
-448
246
2445
-712
-798
1602
-1188
-1488
1539
-1052
-67
1507
45
1430
1946
1248
1766
2096
1099
1752
1584
608
1794
1436
583
2213
808
-288
1053
707
-721
-341
-606
-1830
-2124
-606
-2560
-2971
843
-975
-1447
2044
623
278
1250
-329
219
658
-905
360
411
326
1696
-101
499
1500
-237
271
1216
1494
1752
2603
637
235
1554
235
221
1472
-206
-69
1203
-513
-1167
260
616
-1114
-67
1315
-649
546
1202
-798
236
656
-1354
-862
-1522
-3579
-2624
-1050
-3276
-1616
326
-2183
-332
-15
-2757
-1233
762
-1128
705
205
-1729
-159
454
-1416
-1021
1380
-227
6
2505
229
331
2389
-445
-720
2847
-173
-497
2498
-641
2
2381
-127
791
1634
143
1133
1549
830
2148
1482
213
1597
1448
51
1077
1265
-1407
158
560
-1926
-773
937
-1740
-689
1611
-908
575
2699
32
1964
1872
-458
1297
1474
-858
552
2662
455
1507
2648
288
1141
2237
-288
400
1927
-573
290
451
-1855
-243
435
-2172
-430
1604
-1300
30
3003
28
1066
3633
544
1525
2415
-722
342
1421
-1455
-622
2212
-142
366
2767
158
176
2488
-532
-911
1165
-1301
-619
-428
-1959
-1093
864
-25
203
1468
871
1087
616
-230
717
94
-727
531
-148
-1209
-516
-56
-1065
-1449
-411
-1590
-2301
56
-2079
-2952
1475
-630
-1534
2789
799
-253
1745
-371
-559
1273
-912
138
833
124
1818
494
417
1799
-184
-219
921
1081
1292
1879
1310
1103
2286
1367
1109
2437
616
997
2411
133
-245
1117
630
-436
330
1863
307
678
1709
-26
281
40
-1492
-1317
-1732
-3371
-2874
-995
-2625
-1536
-340
-2656
-1496
-926
-3705
-2547
297
-1793
-423
363
-1772
-317
146
-2180
-1830
1043
-1370
-1648
1981
-541
-824
2622
-392
-872
2747
-54
-480
1761
-1241
-735
1369
-1002
-513
-10
-1436
-708
812
38
1033
726
-159
960
-226
-1406
-363
1127
-1133
826
-368
-2476
-970
718
-1584
-60
1741
-729
1404
2647
-189
1742
2744
-75
1345
2396
-209
874
2304
-162
666
3163
260
386
3640
656
746
3524
716
866
1534
-535
773
1737
-746
1063
3154
204
1777
5035
1856
3709
4889
2041
3244
3909
976
1605
3152
510
593
2785
920
1399
2781
1065
1580
1594
-69
70
1038
-499
53
-10
-1117
-349
654
181
426
622
478
505
-478
-1117
-85
-399
-1503
-813
69
-1295
-1465
131
-984
-2257
703
-367
-1699
615
-648
-1594
1360
104
-639
3294
1637
795
2367
580
962
65
-1964
-782
-279
-826
376
-427
-473
717
-608
-55
1184
-387
262
1130
9
535
1843
465
835
2088
-123
624
1995
-634
-191
801
163
115
891
1568
1009
1279
1385
639
1040
-482
-1105
-395
-681
-1378
-712
-1030
-2339
-1453
-714
-2457
-2070
-108
-2356
-2201
1163
-706
-53
683
-870
322
-192
-1661
-1171
240
-1941
-2115
1032
-1371
-1600
1954
-820
-1209
2216
-26
-603
1504
-794
-449
871
-1323
-58
157
-1802
-14
115
-1062
820
598
-874
693
-286
-1783
-233
2068
-89
2134
-22
-1803
-5
248
-1662
367
370
-1734
672
1232
-1418
787
1911
-960
1213
1492
-977
563
1150
-1172
-696
2211
-304
92
3089
189
435
3779
599
843
2614
204
1140
2046
-424
832
3098
-147
1055
4170
829
2361
4072
1713
2823
2652
191
1094
2591
382
272
2620
1253
1442
2411
1278
2203
1334
685
1650
1043
287
1024
360
-202
591
616
836
879
-84
374
-95
-204
-95
172
59
40
44
1482
848
-376
1800
700
-1403
1886
1010
-487
1374
784
-146
2231
1460
217
2745
1922
1300
2147
1293
2099
615
-439
1054
-912
-1153
237
-805
-606
667
-888
97
1365
-125
1473
2226
785
1852
3102
469
1544
2977
642
1469
3050
-555
21
1492
335
404
1524
2330
1859
2617
2075
2031
2994
874
700
1565
-210
-469
266
-1165
-2109
-1578
-128
-2006
-2468
552
-1561
-2121
792
-713
-743
220
-918
-865
-544
-1724
-1647
-540
-2467
-3033
389
-1967
-2871
598
-1810
-2307
1611
-925
-914
1376
-1219
-669
757
-2136
-374
434
-2237
-42
-250
-1839
239
595
-1496
208
579
-1488
202
1721
-505
1793
-212
-2418
22
-300
-2373
477
655
-1391
1150
873
-1545
664
121
-2475
12
-1514
-3200
-1242
-1529
-3179
-2322
490
-1654
-1113
1642
-1350
-953
2275
-1268
-748
2110
-901
-54
1595
-1526
-193
411
-2778
-1522
1089
-1373
-149
1207
-335
640
738
-652
-21
1343
54
-166
1834
1166
1606
2496
1419
2327
1933
1238
2429
580
38
1080
-944
-1145
-459
-809
-546
-615
-1499
-1244
-1748
-1158
-1409
-1364
-163
167
-226
1092
770
-765
1685
921
-588
-259
-716
-1482
229
-661
-1566
1451
156
-276
1591
1102
1544
1526
953
1353
345
131
847
-582
224
2030
-757
253
2077
-2039
-343
1058
-841
823
2501
-451
310
2518
-1244
-417
1602
-1136
-160
1563
-1670
-1001
379
-824
-975
338
2080
1284
2284
1949
1781
2657
1281
828
1654
332
-236
413
-527
-840
-1467
-174
-1979
-3100
-617
-2646
-3375
-143
-1633
-2197
627
-956
-1495
-31
-1304
-1830
225
-1666
-2418
1642
-797
-1911
1186
-1224
-1857
802
-1775
-1624
-3
-2775
-1796
-663
-3655
-1329
-215
-3140
-793
-352
-2579
-151
690
-1903
110
345
-1879
-116
2277
360
2385
808
-1105
987
153
-1790
921
664
-1667
1082
621
-2149
-112
-253
-2887
-1034
-1239
-3263
-1774
-1668
-3074
-2245
380
-1455
-747
1103
-1752
-1292
1363
-1825
-1400
1374
-1296
-359
1798
-446
978
1071
-1391
-22
1036
-912
731
345
-811
707
-571
-1300
-1252
476
-449
-1158
1741
994
743
1938
1052
1567
2394
1357
1975
655
-200
413
-1143
-1552
-1192
-900
-820
-772
-975
-770
-1171
-110
-422
-721
878
982
310
2730
2039
427
2261
1016
-562
-264
-1139
-1957
-132
-1234
-1951
636
-404
-266
1294
1184
2098
1312
974
1685
595
1306
1961
-404
1745
2994
-1351
883
2707
-2150
-121
1414
-2076
-681
1308
-1411
-1133
1465
-2463
-2286
-148
-2817
-2379
-543
-3568
-2744
-1654
-2868
-2400
-1729
92
355
853
822
1089
1510
-46
-335
173
-758
-1784
-1254
-802
-1688
-2144
-474
-2252
-3634
79
-2181
-3403
684
-1107
-2126
1086
-307
-1658
1114
-142
-1383
1105
-1125
-2079
1789
-1116
-1951
2282
-817
-963
1869
-1266
-856
707
-2360
-776
-387
-3452
-528
-221
-3409
-715
120
-2659
92
729
-2150
191
449
-2293
-237
2480
843
2345
1257
-464
978
373
-1398
782
-175
-2088
507
-381
-2563
-109
30
-2643
-920
631
-2111
-1310
-84
-2119
-1512
697
-1146
-96
-281
-2254
-1142
-484
-2407
-1009
1268
-620
780
1989
331
1283
1492
-178
661
1394
-433
699
868
-200
445
-1582
-1766
-1531
-1105
-1763
-2531
554
461
-22
1494
1685
2288
1073
1088
1804
865
51
827
245
-657
-184
269
-217
-351
80
-544
-695
1324
846
130
2512
2292
830
3758
3328
1611
1529
795
-498
-874
-1693
-2056
-239
-891
-710
213
75
758
1189
1668
2502
1621
1732
2721
913
2777
3544
226
2648
3352
-712
1352
2685
-1318
153
1602
-1703
-330
1215
-2019
-1511
734
-2462
-2291
-119
-2017
-1736
76
-3260
-2539
-1728
-2736
-2022
-1935
-914
-229
145
-626
-356
-393
-681
-1173
-858
-2094
-3551
-2944
-953
-2632
-2911
-9
-2193
-3977
605
-1180
-3681
1519
-353
-2065
1326
-462
-2000
968
-837
-2060
647
-2183
-3581
762
-2696
-3293
1724
-1785
-1546
3055
-439
-30
2840
-426
925
706
-2339
304
-977
-3814
-1105
-268
-2890
-434
1149
-1670
213
307
-1999
9
1931
566
1712
1203
-139
794
531
-980
286
68
-2086
-232
-34
-2483
-456
-589
-3040
-1937
-60
-2735
-2403
921
-1832
-1644
2492
-387
132
971
-1717
-626
1191
-1218
-20
2694
938
1667
2519
1388
2289
1630
568
1463
865
-374
-29
-478
-836
-1051
-2431
-1944
-2321
-1902
-1324
-2298
-857
-247
-932
-634
-39
243
-544
-380
-44
1542
1072
1078
2159
1947
1057
1804
1470
463
806
262
73
802
684
-220
1802
1850
112
2309
2702
1190
429
987
565
-1058
-1144
-572
-940
-1172
-437
-619
-644
-208
1975
1843
2293
1779
1733
2518
-224
1497
1912
-1312
776
1300
-1429
606
1002
-469
1068
2272
-1236
742
2435
-2004
-175
1873
-1996
-570
1297
-2031
-1064
318
-2536
-1406
-550
-3357
-2198
-1631
-2164
-1642
-851
-1129
-1350
-891
-859
-1787
-1080
-2555
-3603
-3022
-1887
-3399
-3741
-1194
-3050
-5061
511
-179
-2594
2070
850
-1162
1694
211
-851
1461
-614
-1315
856
-1959
-2795
986
-2053
-2693
460
-2537
-2412
2396
-807
-387
2732
-863
723
654
-2468
-127
125
-2540
-402
636
-2366
-138
1393
-1352
383
670
-1509
10
1372
193
1335
730
-740
348
1042
-834
-253
1673
-669
209
1157
-1500
-13
567
-2030
-1623
1470
-1389
-1370
2793
-348
-11
4021
842
1647
1607
-980
364
1779
-972
455
2920
1294
2067
2989
2178
3207
2105
1699
2699
908
120
1002
594
-242
377
-815
-686
-513
-402
234
-305
102
850
694
27
17
415
-46
-312
-134
2314
1917
1954
3258
2995
2364
1997
1641
967
539
241
-414
32
739
-283
1001
2283
1149
1157
2354
1573
208
1250
1077
-1651
-1805
-1601
-1689
-2094
-2042
-812
-1462
-1471
1312
-80
322
116
-963
-116
-1039
-238
-154
-1081
-8
-5
-976
-18
-232
235
1201
1530
-1698
516
1705
-2748
-490
790
-1656
-258
367
-1919
-1110
-85
-2871
-1800
-245
-2078
-1129
-210
-1141
-941
-462
-676
-710
-40
-894
-1616
-942
-2783
-3233
-2712
-1584
-3007
-2727
-431
-1921
-2949
838
625
-1040
2459
1845
-124
2074
653
-377
1718
-478
-789
1253
-1784
-2245
812
-2113
-2440
120
-2486
-1914
778
-1969
-1079
1756
-1418
134
-45
-3325
-1023
92
-2696
-619
765
-2394
-180
1580
-1066
495
1232
-1117
338
1050
21
1517
932
-472
1193
805
-1160
-225
1625
-288
1076
2140
93
2051
1702
-472
335
1570
-556
-8
906
-1308
-447
1699
-455
1070
449
-761
855
747
-456
950
1868
1044
2078
1891
1402
2254
1131
1285
2254
316
436
1932
186
2
1134
-1009
-325
186
-80
784
582
690
1701
1930
-187
100
523
-114
-63
182
1730
1560
2273
2391
2436
2759
1184
1364
1247
510
714
248
-444
1129
842
-833
1009
1162
-352
858
991
-923
10
163
-2593
-2357
-2329
-1660
-1983
-2037
-607
-1531
-1385
417
-906
-22
-1508
-2147
-610
-2749
-1559
-318
-2777
-1670
-711
-1633
-590
-167
-746
930
1381
-1750
1137
2077
-1988
-161
778
-881
400
987
-522
165
715
-956
-528
302
-479
75
464
22
590
468
-436
-70
310
-242
-15
471
-1970
-1492
-858
-167
-323
371
165
-90
-293
1039
920
-488
2379
1961
353
2505
1262
627
1929
-513
-97
1855
-1292
-964
1222
-1764
-1337
560
-1874
-1178
472
-1690
-306
1000
-1556
581
-535
-3180
-113
517
-2009
438
1522
-1145
880
1993
-367
954
1235
-1227
-361
1801
524
1792
1755
369
2088
1644
-576
318
1930
-37
1372
2533
768
2864
1867
96
1245
947
-918
-182
-208
-2126
-1247
-46
-1413
-24
-964
-1533
66
-113
-523
914
667
457
1662
364
-47
1217
-463
-114
1184
-1203
-921
555
-684
-736
-34
-674
-48
408
1070
1599
1756
1677
2263
2215
806
897
635
411
608
386
1539
2183
2904
1922
2493
3370
-155
903
1840
57
1000
1784
535
2269
2432
-623
718
577
-711
822
-64
-1872
-507
-818
-3291
-3188
-2754
-1250
-1623
-1281
-970
-2211
-1627
-254
-1101
54
-2948
-2692
-1199
-4077
-3042
-1139
-4029
-2414
-481
-2425
-554
315
-1208
526
705
-618
1260
1699
-573
384
939
131
733
693
297
455
76
16
36
-204
304
941
820
281
1743
1717
157
885
915
552
1360
799
-567
280
37
556
372
350
772
-139
-614
144
-649
-2029
1081
575
-1265
2751
1615
799
3071
604
827
3240
21
135
1432
-1554
-829
36
-2270
-1253
141
-1955
-968
77
-2815
-693
-304
-3416
-355
903
-1957
805
1709
-793
1047
2160
-69
825
1093
-1356
-1069
3092
1604
2355
3289
1565
2750
2667
383
748
1858
-152
765
1494
456
1800
-164
-1374
-207
-1281
-3259
-2627
-1759
-4048
-3322
-1975
-3332
-1529
-1637
-2560
-230
-1323
-2507
-491
-1317
-2059
-414
-600
-1126
747
-748
-1100
-43
-1461
-1648
-739
-2426
-2456
-1492
-1335
-523
-192
-310
553
1240
910
1577
2217
1161
1510
1383
220
310
127
500
1003
1837
2484
3009
4185
-552
431
2521
-736
795
2295
0
1713
2502
-1351
3
-23
-1804
-362
-1709
-2494
-1220
-2219
-3758
-3205
-2980
-1601
-2064
-1386
-1697
-3380
-2565
-2132
-3125
-2071
-3788
-3569
-2640
-4520
-3114
-1252
-3084
-1476
702
-2022
-373
783
-1095
223
395
-1100
-177
-96
-147
-41
170
585
297
-237
1102
695
-229
1459
1574
858
1800
2781
2114
2407
4230
3803
1569
2451
1939
1442
1947
1475
-113
-173
-1264
-180
-788
-1983
-145
-1135
-2024
225
-489
-1535
1106
201
-2046
2644
825
-713
3364
1042
742
2738
30
383
885
-1809
-785
-85
-2385
-1136
-319
-2526
-1713
323
-2881
-1337
35
-3245
-817
576
-2236
-226
1689
-1212
-73
2049
-618
219
860
-1848
-1276
3364
2061
2129
3835
2231
2424
2734
682
864
1155
-583
106
-589
-1091
337
-1830
-2855
-1382
-2146
-4097
-3752
-1383
-3588
-3656
-1418
-2702
-1359
-1682
-2293
89
-1875
-2895
-331
-1557
-2286
61
-975
-1738
353
-747
-1720
297
-1759
-2338
-378
-2677
-3039
-1643
-2019
-1669
-1435
-1188
-1005
-230
782
1097
1889
1507
2285
2699
-595
259
522
-336
-540
-18
909
941
1577
-1219
-1601
-200
-1204
-458
580
292
1775
2563
-975
796
1038
-1522
223
-529
-1702
-309
-1070
-2964
-1892
-1822
-1139
-1141
-361
-104
-1464
-386
-1964
-2473
-1645
-3492
-3280
-2239
-3461
-2116
-302
-2390
-858
1007
-2085
-655
562
-1557
-676
-31
-1832
-1006
-141
-998
-169
1092
-322
294
491
824
1327
1005
2057
2772
2793
1676
2989
2978
3482
4375
3789
2315
2797
1943
1554
1447
552
564
8
-1497
-303
-599
-1711
-578
-1245
-2176
482
-83
-1313
1237
55
-1456
2873
515
-683
3826
1189
825
2954
358
833
913
-1393
318
487
-1529
289
607
-1629
-382
338
-3151
-1735
226
-3403
-1164
1258
-1655
-296
1552
-1792
-982
2121
-1076
-453
2352
-1163
-460
3290
1818
2041
3278
1866
1737
1457
-12
230
98
-997
-423
-586
-1120
-145
-1971
-2992
-1728
-1884
-3770
-3068
-458
-2758
-2374
38
-1571
-308
-596
-1503
612
-1738
-2715
109
-1459
-2025
732
294
-785
1258
333
-473
1530
-614
-1338
344
-1350
-1919
-1016
-2557
-1904
-1629
-1210
-1009
-867
210
589
594
708
1956
1813
-1742
-698
-790
-1581
-1735
-1555
-611
-811
-764
-1606
-2691
-2167
-2124
-2931
-2398
-676
-274
-235
-702
433
207
-2174
-271
-425
-2280
-962
-1062
-2444
-1215
-1600
-890
-788
-1036
-48
-976
-1254
-1883
-2286
-2048
-1871
-1643
-1023
-1074
-280
938
-2299
-1261
-324
-2363
-1088
-351
-2060
-1394
-643
-2167
-1281
-583
-2488
-755
259
-2470
-441
63
-412
1526
1275
-39
1790
1543
976
2345
2517
2345
3212
3078
2466
2782
1894
1398
1284
256
-12
36
-1027
-978
-1127
-2238
708
-60
-1802
1002
621
-931
963
-503
-528
2289
157
1027
2211
514
1744
1906
-8
1323
1204
-697
1378
1745
-233
1898
2201
-171
1396
1428
-1783
-241
1102
-2419
-471
1824
-995
-73
2090
-730
-255
2576
-820
-71
2827
-1069
-442
2836
1122
1216
2556
861
643
1907
357
689
472
-594
2
-694
-1491
-1197
-2014
-3087
-2507
-1478
-3150
-2755
-342
-2053
-1619
681
-531
379
225
-339
852
-1915
-2499
-122
-1526
-2055
-15
630
-870
304
472
-377
679
-1077
-1664
-726
-1932
-1696
-993
-3054
-1814
-985
-1237
-562
-412
-294
22
-330
-955
202
204
-3509
-2174
-2491
-3115
-2901
-3566
-302
-739
-1637
304
-679
-915
-908
-1078
-847
-1252
-559
-716
-765
51
-485
-838
816
-78
-1495
-443
-1185
-717
-161
-933
1632
877
-625
793
-333
-2212
-2079
-2101
-3251
-2223
-1196
-1534
-164
897
1257
-1315
42
328
-2433
-1369
-1320
-3359
-2245
-1982
-3776
-1726
-789
-2764
-44
455
-1954
736
305
-401
1766
967
-244
978
309
1086
1776
1365
2251
2746
1798
3117
2504
1102
2964
2100
695
1539
1046
-95
-522
-564
-2153
216
577
-837
1953
1838
1333
2484
1097
1942
1007
-293
1291
645
-265
1604
320
-866
825
-448
-1457
868
592
-673
2482
1601
-7
2687
1479
-1039
859
1042
-1514
-143
523
-1490
-610
872
-1067
-377
1531
-763
173
1643
-1219
-564
2571
662
150
2258
407
-335
1092
-154
92
-538
-1351
-727
-1052
-1384
-1192
-1964
-2391
-2079
-2271
-3469
-2510
-885
-2105
-969
70
-793
749
-430
-60
1258
-3427
-2764
-507
-2643
-3010
-1177
-703
-2006
-1411
-266
-1621
-559
-1838
-2358
-1275
-2203
-1972
-1076
-3003
-2013
-1069
-2592
-1733
-1301
-1799
-767
-810
-1430
114
-568
-3676
-2158
-3293
-3199
-3038
-4421
170
-107
-1494
602
767
-371
-1302
204
-493
-2451
-1089
-1373
-522
-97
-535
593
1255
396
-22
-10
-929
1299
836
-314
3430
2452
744
1609
861
-1013
-1260
-517
-2098
28
1765
868
1346
3012
2270
-622
1103
916
-794
328
170
-2586
-1318
-1153
-2745
-599
-172
-518
1439
1146
-105
1306
630
-429
1430
333
-364
683
-294
1302
1183
341
1697
1533
446
2541
1762
722
2600
1690
386
2094
1324
328
-835
-906
-2520
-588
-225
-1456
1639
298
111
2078
711
1368
419
-681
737
-471
-1195
879
-1008
-1696
562
-2052
-2339
35
-1126
-2007
823
882
-179
1802
701
-780
857
960
-710
866
-152
-1770
-468
-988
-2700
-1276
-98
-1481
-11
400
-916
460
2284
1032
826
1422
123
-110
-222
-759
-380
-1798
-1971
-1456
-1248
-915
-566
-1198
-803
-540
-2082
-2426
-1587
-1247
-2144
-618
419
-276
1049
443
623
1895
-1214
-1284
617
-2388
-2892
-1000
-1482
-2102
-1469
-375
-1498
-805
-1554
-2771
-1611
-1085
-1266
-734
-2007
-1626
-1065
-1815
-1477
-1270
-1140
-197
-644
-859
215
-768
-2872
-2178
-4177
-2307
-2698
-4414
158
-433
-2058
-587
-455
-1969
-1216
310
-945
-1390
-317
-844
800
494
-412
1995
1942
1148
1505
1537
852
1598
2005
711
1470
2096
1498
-138
863
222
267
2255
912
1095
3987
2878
511
2473
1762
-594
1050
850
-466
522
102
-102
577
47
14
990
567
532
1488
1569
330
1365
828
1282
2038
915
1862
2665
1006
2613
3438
2273
2339
2575
1942
2978
3284
2770
2403
1974
1596
2355
1563
1350
1200
972
378
1444
2049
1228
1838
1005
737
1621
812
1230
890
252
1389
502
-219
1687
278
-775
1363
-474
-1399
625
-186
-1397
547
929
-406
692
395
-771
436
771
-684
999
-672
-2399
-679
-717
-2853
-995
30
-1593
430
685
-733
1416
2902
2441
2791
1789
1396
1558
383
87
617
-433
-523
-29
-686
-118
186
-654
-186
176
-1697
-1787
-1579
-900
-1970
-1227
303
-229
534
443
337
1484
40
-256
579
-569
-1181
-434
-722
-1288
-1057
487
-270
-188
-226
-899
-803
-356
-377
-780
-1010
-124
-336
-402
307
-498
455
821
-352
103
460
-590
-1921
-1577
-3332
-1322
-1447
-3475
-853
-1349
-2559
-2017
-1897
-2211
-1408
-587
-1622
-591
-86
-1520
187
386
-838
2314
2232
794
1612
3040
1917
-580
2278
1781
-1711
1257
1753
-1551
1035
1184
-56
2589
1774
1177
3569
2881
309
1268
1135
-456
687
900
-170
418
953
295
745
743
-268
763
330
-165
1023
1135
-682
1055
836
1019
2054
1325
2025
3201
2271
1409
2788
2109
1051
1916
1356
1774
2501
1657
1709
1217
539
1906
1407
1349
1127
1202
1749
940
1299
1874
657
177
897
617
-210
366
1468
589
1325
991
402
1629
485
-556
840
588
-626
929
733
-421
854
668
-576
116
352
-992
238
-612
-2287
-138
-1205
-3176
-1285
-1520
-3659
-1629
-1203
-2846
-299
163
-1622
476
1854
2143
2166
870
1434
1268
589
751
1010
410
300
419
487
533
743
419
211
410
-1270
-1845
-1510
-851
-1899
-1557
44
-540
66
-263
-504
300
-71
-404
-262
42
-571
-228
-5
-454
-364
195
102
-401
-420
-514
-1276
-478
-233
-1166
-439
716
148
-351
674
-39
367
1321
-357
1128
1961
-108
-1064
-119
-2582
-1121
-321
-2708
-139
149
-1466
-1913
-1175
-1933
-1589
-306
-1361
-726
353
-937
-2901
-1420
-1686
-1055
878
394
-66
3267
2614
-2440
1742
2114
-2588
833
1302
-1593
576
240
-1264
696
92
611
2270
2048
-99
808
980
-1721
-83
791
-2130
-902
593
-1092
-378
367
-853
545
673
-659
926
1014
-78
1751
1714
-226
1579
1659
-568
665
642
-653
437
480
-1199
-589
-1606
-472
-38
-1251
-940
-985
-1920
-220
-425
-672
360
130
330
-95
175
813
125
-280
708
803
-275
204
1309
-238
321
1022
-95
913
779
-714
923
1549
-507
1138
2099
321
1475
1916
294
1199
1632
-592
975
435
-2194
-651
-591
-3182
-1260
-955
-3206
-1018
-992
-2356
26
123
-1766
439
-662
-152
-471
208
691
37
1294
874
934
-157
-637
-409
-802
-1045
-734
-487
-768
-634
-1676
-2153
-1496
-279
-1635
-882
1275
267
1112
929
420
1675
-351
-758
-258
-580
-795
28
-530
-351
348
-532
462
934
-481
323
-75
-71
149
-189
-521
578
492
-1594
167
10
-912
1193
525
248
2547
1525
-1903
42
-1680
-1494
-196
-2034
-705
626
-578
-2112
-558
-1716
-1452
339
-964
92
1645
474
-1538
378
359
-2157
17
672
-1438
1356
1572
-2858
198
581
-2213
647
1239
-1664
954
779
-3001
-484
-994
-413
1587
1455
-195
1405
1863
-1793
713
2133
-2172
-608
413
-873
484
1300
-584
961
1117
-1309
362
311
-1057
485
802
-1934
-421
353
-2885
-2267
-1525
-3734
-2921
-2543
-3469
-2303
-2861
-2431
-1421
-2829
-2125
-1877
-3237
-1003
-1793
-1955
491
-365
-365
209
-155
44
-225
-95
380
-98
-558
-337
1091
-685
-432
1226
-455
699
1964
313
1859
2757
426
2453
2296
491
1909
2281
307
1587
1565
-541
853
909
-1753
-136
-66
-3146
-822
-661
-3341
-848
-804
-2596
-108
-212
-2067
605
-1518
-761
-523
-18
312
172
2125
1266
1544
1158
-292
135
90
-1257
-746
394
-283
-127
421
-348
-305
685
-693
-244
2031
1169
2184
2357
1770
3567
1286
708
1973
441
239
1455
228
233
1566
510
1160
2307
464
1241
1668
343
1057
1193
-465
1188
1066
-1463
670
184
-1345
1462
1096
-2704
573
332
-3834
-1538
-2524
-1583
137
-1551
-1967
272
-988
-2413
-409
-2125
-1238
-28
-2115
185
1246
-939
-909
623
161
-2059
-594
257
-2139
-396
601
-3004
-827
-244
-1362
1362
2224
-1641
906
1356
-2797
118
-82
86
2185
1664
-1004
1328
1330
-3014
-172
429
-911
175
275
1452
2328
2512
139
1165
1138
-1109
193
416
-954
573
1235
-541
582
966
-2344
-1560
-1297
-4702
-3443
-3261
-4165
-2759
-3521
-2799
-1588
-3166
-1525
-1552
-2529
-1908
-2718
-2768
-284
-1299
-1290
742
168
192
202
198
183
129
-330
-1002
940
-589
-1136
917
-639
303
1289
-806
1073
936
-1300
1047
801
-909
858
1101
-582
662
1
-1248
-9
-249
-1857
-311
-1448
-3313
-804
-1923
-3593
-545
-1340
-2807
216
-1273
-2827
71
-254
20
595
646
211
388
2757
1742
2080
2065
408
754
1490
-559
-235
1642
150
53
1583
294
-236
974
-417
-401
2045
748
1522
3510
2702
3803
3227
2666
4047
2508
2345
3572
2737
2723
3868
2060
2345
3091
195
885
1328
188
657
832
-610
1064
1370
-1185
478
287
-1463
864
578
-2763
-640
-624
-3068
-1849
-1721
-604
-66
-1038
-604
657
-953
-1341
319
-1653
-814
267
-2257
-19
605
-1780
379
1093
-400
167
706
279
-1546
64
632
-2336
520
955
-1800
1389
2988
-1899
865
2869
-2520
483
1895
-14
1831
2137
-1304
835
1094
-3350
-709
227
-2745
-831
-955
-1059
611
655
-528
1543
2193
-80
1903
3156
-599
1204
2347
-536
637
849
-1441
-386
-246
-2556
-923
-1082
-2137
-975
-1755
-1806
-968
-2240
-1309
-1408
-2363
-691
-1773
-2034
1292
274
-270
1541
610
368
803
139
383
348
-194
-772
-537
-1195
-1930
-778
-1566
-685
-279
-1972
-73
-345
-2068
339
-547
-2001
-217
506
-1264
7
-464
-1577
-241
-354
-1605
6
-1087
-2526
55
-1917
-3073
111
-2823
-3785
-761
-1773
-2856
-219
302
1123
993
1423
1453
1290
2323
1597
1679
1976
779
151
2008
387
-575
1347
-78
-603
1592
-137
-1004
507
-871
-1223
737
-389
84
2406
1492
2532
3157
2181
3603
3238
2529
3587
3439
3036
3883
2106
2194
1987
217
271
-125
316
459
-65
-293
717
416
225
1656
697
471
1876
890
-1071
145
-233
-1507
-189
-205
140
1124
90
694
1789
162
-348
809
-299
114
572
-836
167
188
-1845
1023
1366
-55
711
1666
1111
-2344
-603
-238
-4738
-1195
-121
-3783
398
2326
-1988
1601
3379
-2091
809
2063
-1380
952
1953
-1135
1495
1489
-3124
398
301
-4545
-1619
-1732
-3013
-145
12
-1947
1460
2472
-513
2732
3857
-2339
84
1169
-1678
125
320
-976
573
653
-1251
468
718
-1752
-1023
-1573
-817
-309
-1793
0
-330
-2096
905
276
-704
1610
1114
318
835
414
148
1415
1396
2120
1830
1690
1813
5
-596
-1128
-1032
-1587
-1154
-340
-1145
-8
-386
-1675
-68
-1691
-2960
-998
-1074
-2441
-662
-1443
-2596
-568
-993
-2649
-587
-736
-2821
362
-416
-2534
1115
-1327
-3344
220
-887
-2557
421
-447
473
474
867
1071
938
2262
1600
1682
2031
696
174
2227
952
4
1601
384
-293
1414
-276
-1105
1013
-46
-399
573
-454
213
143
-427
1086
603
-47
1737
1511
1177
2245
2318
2113
2369
1276
1131
856
-325
-722
-1358
-925
-1259
-1911
-1919
-1446
-1971
352
1122
202
985
1357
-59
-355
14
-990
169
1099
492
1276
2520
992
1803
3299
1553
1068
1947
696
230
606
-736
-194
509
-608
71
1446
651
-230
1374
1302
-2983
-891
29
-5677
-2292
-175
-4095
-247
1822
-2280
1233
3127
-3189
99
1221
-4152
-1242
212
-3328
-408
-2
-2038
1486
387
-3340
-242
-382
-2903
189
907
-1179
2161
3068
-2309
347
1166
-4026
-2800
-1947
-2713
-848
-356
-1944
165
220
-2750
-989
-629
-2871
-1918
-2544
-1855
-1285
-2680
-801
-840
-2460
-187
-53
-855
784
891
405
-529
-164
-49
465
1361
2229
1431
1852
2370
416
-292
-238
-1253
-2364
-1813
-554
-2037
-1231
-334
-2056
-761
-1614
-2500
-697
-1146
-1704
-302
-1095
-1810
7
-665
-2146
-547
-262
-2587
-134
303
-2138
631
-985
-2978
281
-695
-2545
275
-870
-377
-180
-265
198
102
1194
915
862
1902
411
113
1611
226
-404
419
-742
-1269
-93
-1757
-2423
-1260
-2391
-2040
-2337
-3527
-2270
-2707
-3485
-2094
-618
-1165
496
1100
552
1270
1778
1562
1234
81
-344
-794
-1963
-2423
-2470
-2180
-2896
-2908
-2075
-1858
-2028
-698
-338
-727
-572
-558
-1641
-1748
-1530
-2926
-735
-120
-1257
1755
2448
786
2341
3122
1186
1309
2114
350
-120
34
-796
-1103
-673
-1449
-41
479
-5
-867
241
-399
-1437
143
168
-4227
-1682
-222
-3939
-478
844
-1994
1585
2929
-2928
-29
1507
-3016
-801
660
-2002
59
606
-1060
1248
850
-1386
1322
1367
-1546
1101
1636
-1228
1641
1913
-4007
-2230
-850
-3929
-3406
-2584
-767
113
-14
-194
1419
1082
-2040
-912
-1117
-2131
-1299
-2357
-1957
-1421
-2468
-1299
-1434
-2428
-935
-800
-1535
-55
0
-104
-1204
-518
-98
396
1108
2143
917
1343
1715
-710
-1058
-1047
-1263
-2570
-1792
-436
-1832
-1330
348
-975
-331
-223
-915
475
-508
-581
381
-1246
-1298
-99
-1012
-1786
-1186
136
-1537
509
1039
-1324
1747
1096
-1079
1892
745
-1340
1346
-609
-163
189
473
846
349
555
885
328
804
309
171
1035
446
70
752
-787
-1063
116
-2552
-2711
-1434
-3320
-2950
-2047
-3811
-3276
-2041
-3496
-2814
-880
-1852
-777
223
-331
167
624
772
556
507
488
356
-1495
-1803
-1511
-2203
-2522
-2081
-1636
-466
-873
-1881
-89
-687
-2305
-1110
-2075
-1721
-1253
-2641
-2246
-1326
-3138
464
1116
-737
2380
2608
468
1491
1280
-654
-628
-847
-2040
-300
-317
-1842
-480
-782
-2103
-589
80
-1497
-989
414
-88
-2210
-395
7
-2567
610
1457
-1678
1635
2643
-1955
1002
2091
-2955
-727
148
-2267
-532
268
-398
1378
1437
-101
2088
2407
-845
1743
2081
-2191
502
1101
-3978
-2328
-1238
-2027
-1826
-1679
96
1118
1003
522
1809
1461
970
1252
611
545
891
-498
81
737
-614
-423
-512
-1273
-389
-436
-752
824
1274
1131
-608
529
690
421
1410
1784
1555
2189
2044
-776
-934
-1261
-297
-927
-1067
946
-194
-389
727
-173
-317
-674
-1060
-299
-581
-436
-232
-782
-941
-427
-1026
-2074
-1693
35
-1915
-628
1980
-676
1443
2581
-363
1677
1976
-733
1425
191
814
850
1190
2139
1228
892
2213
1368
983
1468
997
837
977
-128
337
-866
-2017
-722
-3015
-3340
-675
-2986
-3369
-12
-2100
-2812
3
-1942
-2547
-495
-2078
-1708
693
-13
-426
1519
1556
573
1796
2070
1925
-1045
-467
-290
-2099
-1595
-1450
-2473
-665
-1122
-4362
-1258
-2072
-3341
-1359
-2639
-1205
-1354
-3360
-1770
-983
-3309
-227
101
-1843
1215
994
-1352
464
-193
-2227
-1729
-2532
-4519
-1360
-2046
-4056
-881
-1266
-3363
-1425
-933
-2941
-1222
274
-175
-411
1798
1522
-1062
2172
2372
-1354
2474
3314
-928
1761
2389
-1260
18
142
-1483
-422
184
-1442
-39
264
-84
2017
2508
220
2751
3341
-1698
605
1654
-2907
-1139
-95
-1008
-629
-595
1080
1722
900
187
1003
665
1022
1081
487
1485
1636
689
1032
1078
-505
499
79
-976
1327
848
547
1490
1934
1210
-453
974
184
21
921
478
724
958
473
-1675
-1645
-2249
-1154
-871
-1541
1802
1177
291
1085
689
359
-1394
-1415
-1091
-1014
-750
-318
-674
-1155
-239
-1193
-2764
-1972
-807
-2933
-1662
1693
-1177
710
2276
-673
1318
2755
467
2235
-634
74
703
55
1322
826
-164
1357
657
801
1360
563
-768
-155
-1386
-1189
-1513
-3464
-646
-2287
-4061
-426
-2792
-3742
47
-1925
-3095
66
-1388
-2775
-896
-2179
-2812
-65
-620
-2002
1598
1389
-281
2120
2382
1013
-14
893
722
-441
413
228
-1591
240
-638
-2636
-246
-1827
-2077
-705
-2730
-1765
-1953
-3670
-1140
-1002
-3310
-791
-983
-3503
526
-48
-2479
205
-453
-2672
-974
-2040
-4962
-1165
-2047
-4393
-1638
-2383
-3850
-3079
-2118
-3787
-2067
-21
-1027
-878
1815
1289
-1990
1838
1942
-1179
2854
2866
-677
2141
1836
-1181
-436
-1017
-190
294
-35
-1527
-304
-69
-826
687
1335
778
2058
2906
890
2302
3200
-1530
-790
-32
-198
-417
-364
2064
2197
1624
1820
2239
1699
2254
2196
1696
2479
2406
1531
1752
1725
5
1806
1054
-455
2231
1281
566
2463
2131
843
1050
965
-384
625
502
-477
853
426
-234
-1096
-1551
-2069
-1037
-1178
-1358
1840
1008
125
2155
1903
1428
2
215
846
-438
-454
587
-524
-1281
-80
-501
-2320
-872
-457
-2729
-654
1849
-869
1471
3190
300
2402
3147
831
2568
-403
258
894
-751
270
58
-547
375
128
-353
-111
-502
-1575
-1483
-2153
-2021
-2060
-4245
-439
-1523
-4502
419
-1616
-3684
527
-1031
-2935
-356
-1156
-2646
-784
-1946
-3183
202
-825
-2316
1119
41
-1870
1404
1301
97
1130
2221
1760
1480
2984
2175
1181
2542
1064
260
1827
-32
-610
595
-1221
-1053
-447
-1882
-463
369
-2274
799
727
-2495
1860
1228
-1116
2077
1329
-1256
2002
578
-3023
-148
-543
-4234
-1487
-1325
-2648
-2503
-772
-1878
-1943
-413
-1399
-1291
720
397
-2529
583
754
-1312
1468
1226
-1177
612
169
-1981
-1390
-1706
-522
-322
0
-662
522
729
-1797
-39
865
-588
206
2206
-136
735
1938
-1759
-1242
160
-844
-914
230
2469
2165
2460
3134
3364
3245
2643
2859
2960
2594
2575
1902
2340
2183
412
2751
1912
-67
2681
1811
40
3658
2988
1064
3114
1854
-236
1973
746
-950
1063
415
157
-1143
-1451
-1545
-1790
-1790
-2156
12
-769
-1728
1592
938
79
955
241
671
1013
189
994
552
-644
507
1065
-1094
855
1517
-1069
1467
2391
-648
2206
3146
-21
2383
3104
319
2150
-465
254
565
-887
-35
-164
-370
546
392
-1013
-323
-528
-1504
-977
-1728
-931
-862
-3415
-3
-905
-3808
373
-1401
-3391
405
-1013
-3075
-483
-1502
-3342
-854
-2682
-4087
-684
-2126
-3154
-662
-1565
-3157
-25
-157
-1826
-123
1167
725
328
1820
1119
1058
2431
1096
928
2576
830
363
1756
544
833
1206
-214
1264
1467
-430
492
5
-2336
920
104
-2819
3085
2160
-1401
3973
2490
-995
1941
1640
-1721
35
1212
-69
-1123
425
-57
-1892
-1134
-1628
-2121
-1145
-1684
-2188
14
188
-223
2068
2152
67
1801
1781
-482
443
995
1147
1862
2447
377
2410
2434
-690
1660
2352
-956
466
2402
118
1313
2209
-920
516
1618
-22
430
1790
3200
2688
3066
4401
4098
3282
3402
3307
2489
2773
2774
1386
2968
2869
731
1946
2000
-213
1998
1761
-428
3801
3280
315
3436
2576
-393
3453
2287
14
2041
759
168
-232
-1079
-1250
-1469
-1958
-1717
-789
-1621
-910
-364
-1320
-264
-432
-1401
489
77
-1261
762
235
-1234
1087
1693
-670
1614
2045
-1142
1770
2779
-667
2754
2818
-812
2700
2129
-725
1977
973
1243
1492
-1130
-68
-29
-1752
-210
-118
-2108
-809
-573
-1818
-648
-955
-1677
-1198
-3202
-1457
-2017
-4328
-962
-2120
-3593
-771
-1971
-3030
-969
-2008
-3283
-774
-2711
-4000
-530
-2077
-2836
-903
-1829
-2894
-1857
-1925
-3376
-1582
-732
-1146
-411
656
28
415
1713
236
1313
2624
614
1525
2095
498
2408
2194
969
2386
1810
672
491
325
-1035
441
183
-2085
3308
2276
-1224
3885
2793
-578
2230
2451
44
704
1984
1462
547
1872
1614
-1358
-671
-586
-3666
-3023
-2762
-3042
-1548
-1597
-1227
732
1207
-1176
937
1896
-856
572
1614
-1527
-446
824
-1942
-372
417
-2785
-1158
287
-1103
198
2133
-1441
-413
1096
-911
-71
1493
269
475
2193
2577
1855
2381
3635
3192
2755
2713
2238
1732
1531
1115
136
432
429
-808
-512
-548
-2440
1334
803
-1384
3298
2288
-542
2120
1127
-1346
1904
469
-1217
1252
-384
-396
333
-1272
-828
-531
-2070
-1221
-296
-2034
-84
888
-872
1312
82
-1303
1373
384
-1342
1465
-182
-1898
1041
-23
-1984
608
1286
-1714
1048
2414
-1015
2178
2696
-905
2340
3026
-655
2364
-52
727
1333
-1770
-164
297
-1477
433
938
-1529
-256
168
-1245
-50
-359
-1404
-955
-2141
-1989
-2655
-4235
-780
-2220
-3152
699
-575
-1202
482
-963
-1312
-145
-2330
-2915
-905
-2734
-2914
-1696
-2790
-3536
-1803
-2306
-3767
-343
-936
-2051
262
470
-660
752
1486
96
1926
3269
1108
2550
2931
1127
2762
2038
1041
2364
1755
771
-71
77
-789
351
406
-1247
1693
912
-1266
2246
2157
-322
2346
3794
1720
2281
3538
3149
1969
3580
3123
-492
605
887
-3425
-2760
-2239
-4165
-2878
-2883
-1894
104
833
-1436
611
1646
-1805
-9
949
-1749
-422
1153
-2706
-1580
-543
-2963
-2239
-647
-2651
-2166
584
-2739
-2318
413
-2990
-3101
-1478
-1213
-1111
-87
403
-325
399
956
608
955
682
-193
-424
411
-121
-734
-772
-691
-1910
-1375
-1345
-3131
1007
-128
-2697
2342
447
-2187
1023
-880
-2344
-112
-1664
-2859
-244
-1679
-880
-557
-2418
-1326
307
-2520
-1277
621
-2095
-154
-394
-2400
123
-1351
-3310
-20
127
-1834
1490
552
-1131
2270
464
-1693
1989
-127
-2982
730
445
-2257
812
1995
-1143
1625
3939
374
3140
-146
1619
2213
-442
1618
2391
-1031
830
1691
-473
1053
1506
-28
1024
1013
567
517
-98
1138
134
-1077
1757
377
-512
1736
384
54
1456
-201
-277
2203
-311
-570
-56
-2526
-2480
-533
-2346
-3208
341
-1089
-2970
1653
434
-1068
1645
1738
388
1935
2751
1158
3032
4140
2263
2600
2782
1687
1457
1463
1593
1305
1069
645
486
359
-35
1004
1324
353
2542
2206
482
1285
2147
-39
-418
1887
347
1268
2640
2550
1040
1906
1775
-643
35
395
-1044
-374
-623
-1859
-630
-1426
-227
1806
1690
24
1789
2305
-2782
-989
-114
-1016
-145
698
-1228
-689
-59
-2202
-1737
-574
-3655
-3599
-808
-3333
-2753
257
-3051
-2625
-1661
-936
-647
4
-804
-1096
102
-540
-1021
-382
172
-1149
-1069
215
-590
-1320
-1136
-629
-2057
-1684
-1762
-3353
-835
-2086
-4117
116
-980
-2666
-835
-1753
-2599
-850
-1732
-1674
-1560
-2405
-530
-1078
-3269
-1637
861
-2282
-1277
892
-2194
-763
656
-1975
-136
83
-2312
326
500
-1911
1529
1439
-1069
2407
1867
-902
2528
435
-2316
1252
344
-1990
1379
2898
422
2912
4475
1853
3990
-129
1480
2145
361
1580
2212
-1183
-73
965
-1614
-387
204
-1866
-531
-111
-840
157
45
-221
208
-497
1143
724
47
2046
1321
1374
916
92
702
1701
-29
523
-722
-2546
-1526
-1392
-2931
-2694
-373
-1279
-2111
-92
-401
-1526
-279
93
-708
837
1719
607
2156
2327
1359
1480
1342
878
1309
1279
2155
594
98
196
122
-427
-1135
484
628
-274
429
604
-290
-603
-214
-1235
-2615
-1157
-2313
-310
230
-416
-773
-239
-679
-2023
-615
-1055
-1376
895
651
-1159
933
585
217
2442
2093
833
2442
2287
-2554
-359
12
-1629
-189
45
-1583
-699
-918
-2724
-1889
-1704
-5059
-4483
-2306
-3856
-3315
-984
-2011
-1590
-137
-1527
-932
367
-1834
-623
632
-950
-926
-375
1105
-83
361
973
-297
-276
354
-439
-1451
1103
-287
-1873
1057
-1039
-2809
1336
-71
-1223
700
-13
-613
-219
-1061
-757
-1037
-2596
-743
160
-3215
-1247
945
-2176
-797
1668
-931
291
2475
-447
954
1908
-699
1394
859
-1920
1099
1500
-1339
1689
1498
-1496
1705
1194
-1604
1403
273
-2159
937
1399
-1324
1565
2682
42
2379
1337
1927
1838
1366
1655
1952
-532
-32
392
-1864
-878
-916
-2146
-1102
-952
-1018
-12
-398
-489
561
-359
-160
885
515
1535
1781
1994
1793
1456
1826
2076
928
1502
394
-1185
-69
-1925
-2540
-1182
-1197
-817
-963
413
921
30
656
1151
198
1830
2095
1263
2589
2842
2065
2112
2389
1918
2653
3297
3172
535
937
738
-929
-909
-1460
-534
-727
-1481
590
15
-939
73
-417
-1581
-1733
-1677
-3065
-1317
-976
-2155
-844
-101
-1203
-2734
-1290
-1824
-1673
127
241
-575
2047
2930
-973
1021
1082
148
1859
1794
-1464
722
1385
-1838
-518
-335
-2018
-1592
-1774
-2759
-2125
-1638
-3225
-2388
-612
-2442
-1859
-464
-795
-215
967
-1233
-412
1497
-2117
-1031
818
-1146
-861
-172
1834
1019
1462
2635
621
281
1382
-445
-1724
1031
-168
-1670
48
-997
-2036
951
65
-708
1483
293
-336
605
-1073
-1189
381
-1545
-82
1249
-1654
328
807
-1572
190
1221
-817
494
2123
-728
676
2339
-702
771
829
-2102
-104
593
-2377
-126
112
-2828
-117
640
-1968
399
693
-1766
1344
303
-2678
496
551
-2545
-91
615
1321
925
1311
1945
1680
163
725
589
-1060
-27
-431
-1107
-323
-162
-518
206
22
730
1400
864
657
1599
1069
594
1742
2019
1287
1938
2502
2130
1623
2478
1465
530
1478
-529
-786
1113
-1539
-435
485
156
664
427
698
896
12
1571
1840
969
3431
3800
2866
3172
3196
2524
3558
4425
3663
1784
2529
1551
299
103
-558
-101
-209
-1258
16
-249
-1112
-471
-858
-1574
-1328
-1261
-2081
-351
668
-592
643
1876
625
-2255
-511
-938
-3114
-902
-666
-3246
-182
570
-1315
822
1159
972
1968
2860
211
597
1067
23
211
-191
-1540
-2286
-2760
-2039
-2513
-1834
-1011
-727
994
-912
-962
402
-1238
-832
-239
-540
-114
1060
505
726
2367
-701
-678
-396
1488
739
436
2051
497
-433
24
-722
-2767
-437
-930
-2700
-934
-1377
-2464
1013
523
-598
580
-207
-1361
490
-1039
-1058
642
-1381
165
1402
-1428
1258
2063
-412
2175
1750
-11
1329
1611
-743
67
1885
-160
592
1001
-821
485
196
-1827
-53
459
-2129
-90
448
-2022
-8
453
-1875
653
-914
-2905
66
-1506
-3656
-770
-460
439
-410
722
1221
348
440
894
14
-749
-566
-743
-280
-591
-559
1012
901
489
2200
2539
2505
1153
1669
1277
1342
2416
2175
688
1520
2041
419
82
996
1720
1453
2094
571
344
1720
-924
-488
661
-1008
-243
-54
823
1149
-97
589
442
-962
1976
1595
365
3055
2714
1095
3587
3351
1549
2219
2567
927
776
745
-361
1165
1000
-713
560
540
-1194
-1938
-1761
-2878
-2122
-1375
-1951
-1067
351
-458
-48
1211
890
-1001
327
67
-2245
-401
-429
-1905
-132
171
306
1426
1861
986
1180
1746
638
378
152
957
723
14
-168
-1250
-1602
-988
-1594
-720
-475
-503
1266
-249
-1109
479
-1232
-1523
-381
-1915
-1576
-414
-199
17
965
-241
65
704
687
448
1072
1395
588
455
591
-17
-1258
664
-75
-1728
1967
1126
-352
3170
2351
1140
1649
787
-244
1560
-246
107
1038
-777
953
1715
-753
1762
2240
-84
2648
3085
1115
3073
2469
926
2095
2026
1334
2010
1459
1165
2285
302
-340
1408
-338
-1486
1004
-1125
-2202
-47
-1635
-2906
-414
-1837
-3028
-288
-1264
-2082
595
-696
446
-45
779
1395
564
1520
1678
445
247
-422
-970
71
-651
-723
1619
1143
560
1898
1693
1629
692
1196
853
1316
2164
1499
1792
2041
1800
2016
1811
2433
2021
2190
2575
1455
1289
2119
1325
1109
1757
590
434
703
2400
1757
1035
2848
2242
452
3132
2064
276
4575
3321
805
4816
2996
628
3642
3135
670
1219
749
-837
657
-187
-1532
89
-1001
-2625
-3400
-2989
-4479
-4234
-3143
-3704
-1890
-1334
-2192
812
1310
1091
793
1325
1263
180
1050
1004
896
1380
1583
1333
2084
2602
1292
1760
2033
353
418
42
1088
925
757
1171
874
1602
497
385
1069
-239
-408
654
-419
-1460
-459
-2346
-2566
-2093
-2146
-1516
-797
-278
312
702
718
1711
1480
1745
1692
1664
1374
1006
819
1329
895
-731
2925
2077
-301
3908
2769
464
3667
2139
179
3236
1509
640
3158
1434
1473
2262
1082
2209
1971
-1
1676
2120
121
2196
2175
893
2828
1853
848
2686
1101
983
2654
1203
1063
3503
-274
42
2521
-1204
-1348
1325
-1403
-1882
458
-2403
-3002
-1
-1815
-2871
267
-1218
-2085
897
-842
-49
-90
-66
135
-346
193
-21
-1046
-700
-1398
-1562
-1011
-1665
-1538
467
117
-407
1
-282
-441
-35
268
307
657
1137
1245
1477
1587
1937
2687
2999
3959
2037
2451
2437
1184
996
1318
1116
998
1748
1067
585
924
1183
550
223
1763
1216
297
3838
2949
1515
5381
3919
2191
4262
2705
791
3149
2331
-250
1569
466
-1619
1748
519
-1226
713
-452
-2464
-2239
-2091
-3918
-2874
-1907
-2558
-484
159
-1332
1359
1837
711
2342
2620
2242
1353
2022
1648
1735
2217
2624
1686
2515
3058
1819
2756
2420
-194
415
40
552
1084
1145
503
1654
2384
722
1941
2700
-586
429
1379
-1292
-975
-621
-2156
-1909
-1949
-1480
-1352
-1024
-1179
-765
-514
-357
230
450
64
-35
167
876
488
390
886
358
-1028
2726
1786
-582
3784
2069
-53
3179
1526
20
2693
1016
439
1872
79
-181
1914
1073
1500
2072
1145
1862
1232
601
1891
1067
800
2037
1564
608
2187
1564
441
2423
1625
762
3726
1119
985
3691
419
84
2247
-872
-1226
605
-2639
-2843
-170
-1736
-2687
-1
-999
-1856
889
-240
428
859
-361
-263
-428
-365
-475
-972
-1310
-1545
-1564
-921
-1283
-1488
581
-130
-424
-253
-624
-699
558
482
302
1332
1629
1603
2147
2225
2270
2252
2977
3807
1436
2639
3028
1471
1972
2378
468
1014
1718
-705
38
526
-890
-1010
-383
310
293
270
2529
2771
2163
3850
3667
3084
3071
3178
2322
1156
1575
560
-1162
-1230
-1179
-2106
-1938
-1426
-2495
-1953
-1925
-3804
-2769
-2909
-2211
-1608
-1515
-530
-114
-741
5
591
-202
266
994
868
764
1905
1802
1373
3063
3458
3036
4071
3942
2808
2898
2385
1528
1274
808
1133
952
1186
342
748
1732
-299
-257
1066
-1237
-1504
-501
-2453
-2703
-2078
-1866
-1723
-960
-419
-487
221
-1319
-638
563
-2222
-1421
-613
-1367
-1353
-1083
532
57
-146
-45
-377
-944
1349
623
-1303
1916
1304
-1038
2346
1475
-527
1731
208
-1097
1282
-248
-1110
1554
813
524
985
784
668
-311
-350
419
520
355
1200
1157
660
1171
821
108
1599
1155
550
3401
2237
1696
4191
2232
1610
2941
1338
344
1468
-1126
-1863
330
-3402
-3935
-1602
-3948
-4267
-1466
-20
333
383
-67
218
-281
303
580
109
-1
-290
-917
54
-561
-1269
164
-727
-1150
-557
-1457
-1983
340
-53
-229
1732
1464
1097
2318
1939
1549
2030
2433
2772
393
1098
1454
562
410
683
-792
-959
-480
-2195
-1335
-588
-2853
-2180
-1077
-1093
-870
-873
1315
1482
837
2171
2540
1991
2554
2912
2123
1671
1060
775
-231
-1179
-816
-1237
-1564
-1117
-1220
-941
-617
-974
-259
-304
-1095
-530
-603
-882
-390
-624
-462
67
-77
-723
467
604
-370
1159
1206
335
2135
2108
1887
2598
2045
423
969
285
677
1116
230
27
847
506
-817
-690
-495
-1507
-1953
-1424
-1863
-2251
-1427
-2571
-2648
-1691
-2095
-1601
-468
-1900
-1414
-367
-801
-481
698
-1515
-1114
-227
-2057
-1949
-1699
-1087
-1477
-1799
-673
-443
-853
-156
-179
-1199
-65
-557
-2327
1507
835
-1264
998
190
-1422
807
102
-719
1421
632
96
325
-131
-333
-520
-660
48
650
863
1421
472
488
595
735
16
743
1340
167
2222
1951
715
2556
1938
871
2217
1223
72
1675
779
-458
2093
-2331
-3451
-251
-4008
-4603
-1223
-656
-364
-463
-972
-1094
-1663
-209
-14
-879
174
-63
-992
356
0
-866
291
-665
-886
-182
-980
-1203
-673
-1096
-808
432
-344
-410
851
524
-185
1503
1449
1177
648
876
621
913
794
-44
-391
-670
-634
-1851
-1387
-271
-1386
-463
587
-1651
-970
-891
334
673
466
1965
1913
1453
2528
2817
2206
1978
2119
1079
-557
-571
-1045
-1020
-606
-608
-1606
-881
-857
-2080
-506
-656
-2308
-247
-746
-1813
-41
-105
-1692
118
780
-1037
759
1355
-1305
811
1625
-883
1593
2120
-584
1088
1716
-186
972
1877
-1218
243
797
-1765
147
79
-1327
-142
9
-2393
-1290
-882
-1536
-837
168
-2444
-1737
66
-2075
-683
1034
-2836
-1641
-77
-3011
-2011
-562
-2574
-1260
-510
-2784
-2076
-2155
-2271
-2120
-2216
-1347
-1237
-588
-1405
-1074
-387
-1348
-1549
-1495
-326
-766
-1254
163
-26
-223
89
129
207
1008
1075
918
773
198
499
196
-318
288
461
34
606
624
10
390
1194
-525
-281
1818
-532
324
1362
-288
562
98
-885
177
620
-463
1194
580
-539
1716
-1571
-3015
288
-2188
-3494
-167
-1666
-152
-467
-1960
-1195
-1682
-1093
-407
-1458
-138
368
-752
761
424
-458
85
-265
-708
-1155
-1635
-1718
-1216
-2024
-2059
242
-790
-905
-276
-782
-1309
709
455
-69
1264
996
490
1491
1763
395
1192
1482
965
886
1199
1823
397
1333
1926
-1566
-772
-251
-169
443
784
963
829
438
-82
93
-277
943
1139
144
-14
143
-259
981
1487
1229
-446
418
217
-1984
-170
130
-2718
-342
180
-2735
-691
336
-1718
245
1420
-2226
-371
1318
-2194
-24
1587
-2342
-22
1376
-694
1094
2248
1369
2804
3780
-1078
1395
2371
-2233
240
468
-1087
612
709
-1085
659
626
55
1636
2395
509
2469
4008
347
2593
3919
-1223
455
1477
-1103
348
826
-1179
548
990
-1293
-169
-112
-1263
-546
-1014
-42
165
-305
-412
-54
-162
-103
-475
-418
199
18
-232
645
839
651
617
466
732
1176
1040
1176
1627
1395
1508
712
326
842
681
144
606
397
-299
380
323
-1215
-838
1067
-941
-27
814
-553
648
-823
-2021
-617
-526
-1384
272
-578
-1417
1045
-2034
-3396
97
-1923
-3514
-88
-1874
33
-536
-1034
188
-764
-814
378
-490
211
723
173
793
748
484
361
-379
-445
-501
-1908
-1969
801
-1097
-1286
568
-466
-911
-72
-584
-1023
722
759
201
1715
2008
1532
1706
2358
1743
-834
-181
91
-483
6
602
-89
593
705
-2879
-2477
-1211
-1602
-793
92
-239
-335
-141
-1847
-2568
-2686
333
29
-702
1105
917
456
2211
1394
1020
2334
2368
1722
83
1364
1581
-2481
-213
402
-2811
-184
505
-1641
314
1378
-2956
-706
1157
-3523
-998
580
-2901
-1011
139
64
1007
1623
624
1434
1936
-1034
778
1093
-2773
-694
39
-900
577
882
-1374
303
166
-810
1042
781
1212
3515
4125
36
2460
3224
-1573
339
1416
-482
579
738
194
1052
864
256
1069
1035
-297
54
-186
419
300
62
1276
984
1139
993
738
401
1613
1483
1054
1383
1596
2272
373
418
1577
882
941
1773
1587
1703
2262
2750
2407
3364
1982
1374
2039
1388
331
890
646
-298
988
1409
450
2435
635
-84
2163
-726
-1545
1030
309
-829
1910
-874
-1814
1223
-1453
-2901
537
-1841
-3550
162
-764
-20
123
-1766
-799
-297
-1608
-522
-739
-380
39
-286
404
370
27
808
-37
-430
-128
-1206
-1656
455
-787
-1040
562
-364
-1000
-14
-225
-1144
307
901
173
1503
2525
1996
1620
2578
2634
-266
1313
1657
-638
490
969
201
866
1148
-424
-287
1028
-115
637
1716
-956
-982
-202
-1159
-1929
-1364
1219
617
107
1870
1162
770
1432
58
151
2363
1126
1458
1695
1649
2337
151
1485
2065
-728
1217
1218
-539
1228
1547
-1099
180
1366
-1437
694
1818
-1561
332
1213
-1
739
237
-191
243
-162
804
1345
541
-35
1072
1059
42
950
1076
-452
789
776
-738
930
697
-287
1963
2396
422
2595
3359
-759
919
1649
-949
74
320
-318
365
-35
419
556
-24
843
473
519
582
807
1082
1191
1290
1212
1475
890
659
2226
1613
1155
2657
2632
3140
1539
1752
2984
1687
1866
3016
3042
2538
3439
4285
3387
4095
3060
1989
3011
1418
339
1151
114
-393
1473
1131
415
3358
198
-617
2588
-1159
-2133
1694
-163
-1514
2436
-358
-1747
1661
-220
-1594
2015
-511
-1807
2001
16
501
1392
-254
-85
897
241
714
-172
-508
-219
-892
-358
-321
-1039
-523
-735
-1772
-1699
-2037
-3065
-989
-1664
-2229
-308
-652
-1356
-995
-664
-1413
-1052
333
322
244
1497
1602
898
2341
2979
-723
1246
1929
-898
465
900
-278
144
915
859
734
2075
-76
279
1820
-3584
-2838
-1616
-3155
-2715
-1383
-548
-885
-81
1171
190
905
516
-1003
70
1604
-78
790
1453
828
2352
697
1359
2893
234
1117
1946
-157
648
1402
-729
295
1933
-918
1143
2654
-1808
800
1793
-2222
-721
-1103
-2766
-2378
-2688
-1065
-481
-1283
157
877
1138
106
694
1101
590
2082
1739
354
1843
1377
-291
1241
1300
1018
2416
2662
211
1453
1640
-797
-260
-248
-281
-239
-136
170
236
493
1469
852
2042
1569
1690
2645
468
651
1318
621
119
357
2160
1792
1719
2581
2574
3554
1275
2117
3623
2808
3131
4723
2437
2094
3512
2244
2034
3164
2139
2239
3542
1490
1242
2665
47
-436
2130
-547
-1427
1735
-1265
-2081
1040
-1856
-2584
1218
-1209
-1988
2149
-730
-1932
1544
547
-894
2230
100
-1186
2248
19
-72
1326
-566
-421
953
-762
-467
-357
-1260
-1757
-1783
-884
-1408
-1648
-1061
-1242
-1601
-1014
-1479
-1994
-1270
-1848
-2589
-1266
-944
-1734
-960
-77
-961
-997
633
471
-222
1406
1091
-148
1570
1800
-1305
703
1308
-2054
-792
-266
-1972
-1643
-611
-965
-1358
468
-2291
-2009
-82
-4376
-3729
-1870
-4701
-4031
-2035
-2227
-2319
-873
30
-1182
-63
368
-1569
399
1240
-168
1310
791
306
1877
386
1195
2997
149
1171
2146
241
981
1731
-1177
83
1385
-1932
8
1675
-2806
188
723
-3153
-609
-386
-3553
-2663
-2012
-2074
-1588
-1301
450
677
1694
1965
2176
2808
2041
3160
3048
-180
912
440
-222
1069
611
436
1208
891
-542
-460
-546
-483
-521
-829
-95
-428
448
1121
693
1529
2170
1778
2980
1472
1793
2573
1029
1232
1894
1836
1414
1591
2188
2482
2640
1760
2983
4099
1189
2705
4571
1467
2531
4450
1183
1663
3710
1743
2245
4124
2136
2991
4630
2072
1883
4125
941
10
2791
-473
-1848
1321
-1074
-2370
722
-1222
-1905
1520
-891
-1531
2136
-794
-1870
1487
358
-1439
1778
-327
-2019
1375
216
381
1546
-55
447
1570
-884
-941
-596
-486
-1481
-1216
-62
-830
-704
-765
-1368
-1406
257
-450
-579
-1312
-1728
-1906
-1771
-872
-683
-1330
180
55
-1353
349
325
-591
1001
841
-1419
608
979
-1251
1054
1683
-1903
78
421
-2292
-1206
-696
-1358
-1303
-4
-1399
-961
726
-4037
-3578
-1833
-5344
-4662
-3063
-3387
-3081
-2097
-1152
-1768
-1519
-1034
-2182
-953
37
-702
352
28
-276
991
-235
582
2131
-819
355
1477
-373
835
1529
-601
673
1486
-1106
835
2101
-2531
142
704
-3552
-548
-197
-2865
-1340
-73
-2112
-1179
-527
-701
-172
932
-15
604
2005
570
1694
2748
-522
562
651
-1049
-183
-322
-2234
-1533
-1520
-2357
-2109
-2036
-903
-707
-530
-316
128
759
526
729
1056
1159
1206
2133
1131
1474
2262
404
338
982
723
351
1228
429
1019
2161
-413
1178
2935
-1082
462
2761
-852
474
2284
-1315
-381
1934
150
709
3274
1077
1355
3397
706
43
2221
387
-839
1862
-1260
-2462
520
-1224
-2387
706
-1553
-2410
748
-2440
-3325
87
-1810
-3143
243
-593
-2123
978
-613
-2344
998
1651
1768
2329
1274
1243
1673
823
38
405
-125
-1164
-377
421
-482
-281
-361
-1011
-1418
-559
-693
-1109
-1292
-999
-919
-944
-458
-127
-1062
-522
-463
-1518
-548
-459
-135
1151
1101
-582
1066
1546
-582
1327
1908
-552
954
1092
-547
253
638
-331
-707
467
-742
-946
655
-2968
-3211
-1466
-4420
-4983
-3762
-2295
-3047
-2254
-507
-1413
-576
-437
-1404
-364
-460
-1573
-549
-470
-1602
-150
-727
-782
732
-127
-20
1321
1633
1794
2588
926
1915
2658
537
1610
2359
-927
888
1488
-1254
546
886
-1035
-866
134
-1091
-522
477
-1177
-336
734
-891
-365
875
-1192
-629
586
-980
-898
-294
-1907
-1572
-1245
-3456
-2968
-2451
-3237
-3052
-2879
-2590
-2396
-2004
-1668
-902
-365
-1108
-670
-716
301
153
649
489
204
1130
-574
-967
-103
-1829
-2388
-621
-2825
-2388
-472
-2108
-990
853
-1859
-971
1295
-1975
-824
1065
-1291
-737
1668
-375
-521
1660
-112
-625
1138
58
-1523
439
-986
-2613
-198
-2254
-3372
-916
-2222
-2967
-366
-2244
-2948
30
-1884
-3097
48
-1637
-3176
284
-1513
-2842
540
-1570
-2935
601
2208
1805
2567
1095
981
1362
1605
515
1197
750
-349
966
986
-158
390
297
-414
-692
-200
126
-370
-1109
-326
-343
-787
-374
-113
249
262
541
-40
234
948
-117
271
1300
-206
640
1578
-1360
-16
782
20
629
1106
1321
1487
2094
1477
630
1893
1055
161
1802
-208
-1128
378
-1773
-3206
-1937
-731
-2614
-1398
394
-1370
66
326
-925
300
-264
-1312
-29
63
-1122
337
557
-503
1279
1270
-78
1734
2692
1524
2924
2013
1569
2862
2421
2404
2922
1543
2244
2762
1225
1746
2264
-167
-569
267
-448
-707
371
-865
-891
-321
-1091
-1681
-1083
-931
-2102
-1537
-778
-1687
-1397
-1112
-957
-1032
-2351
-2589
-2625
-1622
-2507
-3251
-913
-1695
-1796
-879
-1122
-1073
-985
-1387
-1378
-64
-856
-609
974
98
678
1035
-260
344
227
-1128
263
-1534
-1918
-375
-1995
-1504
433
-499
290
2262
-840
-14
1786
-26
-75
2254
676
-663
1383
491
-1128
156
120
-1748
-316
-1140
-3124
-1239
-1975
-3517
-1506
-2728
-3734
-1147
-1723
-2535
596
-638
-1798
1367
-1281
-2686
549
-1591
-2794
271
-1795
-2884
353
590
-207
777
-577
-1139
-758
357
-1288
-452
-124
-2130
-541
738
-1117
-328
43
-1156
-1109
-618
-814
-1327
-1162
-996
-1061
50
44
382
959
660
1250
674
303
1437
-86
-708
802
412
557
1772
-832
-82
1325
271
882
2133
1838
1834
2861
2292
1316
2332
2115
1233
2440
522
-461
468
-1557
-2807
-1736
-491
-2882
-1739
-252
-2533
-1196
133
-1686
-37
-60
-1415
-52
-64
-746
547
-426
-1430
51
208
-1272
71
2141
821
1834
2664
1642
2295
2698
2154
2522
1342
1230
1601
664
257
1209
-348
-693
-248
-1363
-1444
-1238
-835
-1103
-946
-89
-1699
-1488
370
-2102
-2042
332
-1771
-2057
1009
-286
-1059
-1103
-2834
-3718
-2188
-3769
-4984
12
-1702
-2115
431
-958
-1001
630
-871
-921
625
-624
-758
490
-239
-231
1480
352
218
875
-426
522
67
-1157
694
-1187
-2072
350
-969
-1388
1600
-326
-781
1531
-279
-1110
1270
-170
-1180
1105
-494
-1837
44
-1600
-2902
-832
-2001
-3328
-574
-1962
-3272
-960
-2240
-3058
-572
-1386
-2130
824
235
-1105
2043
-612
-2431
491
-1064
-2620
340
-905
-2207
785
-466
-1222
-503
-1672
-2516
-1783
-530
-2261
-1524
-1211
-3517
-1865
-866
-3146
-1993
-774
-2415
-2369
-830
-1547
-1966
79
-497
-600
700
-156
171
600
-354
455
584
-577
422
1098
-282
631
590
228
1382
-11
370
1875
473
532
1770
2222
1775
2640
2336
1758
2605
2267
1424
2140
1398
296
680
-328
-1257
-909
311
-1353
-991
1050
-948
-444
939
-538
793
259
-999
171
-805
-1413
-289
-1422
-2267
-515
1306
199
1475
2332
1313
2560
2847
2028
2683
2570
1894
2115
2262
1611
2202
2219
1298
2251
1273
538
1020
-359
0
-19
-228
-810
-682
443
-1208
-897
908
-846
-758
727
-1094
-1199
856
-192
-490
-854
-1831
-2357
-1187
-2377
-3280
494
-974
-1349
372
-751
-797
811
-504
-512
591
-281
-669
1043
482
409
1859
1453
1537
929
855
1862
-26
-479
1171
-694
-1365
931
-1656
-2156
447
-274
-467
1819
-521
-155
2317
-1032
-863
1542
-1838
-1701
801
-2802
-2831
-149
-2769
-3248
-311
-1931
-2470
403
-2312
-2620
130
-1340
-1713
1300
-90
-1034
2006
-186
-1486
1353
-1139
-2585
647
-1297
-2422
851
342
-160
1199
-231
-1029
481
514
-1112
89
-129
-1738
-204
-734
-2736
-1836
-254
-1169
-1558
1075
367
-150
2336
1202
787
1680
536
360
1046
-224
181
1244
120
785
2271
933
1632
2042
1211
2287
573
385
1672
-578
-640
230
276
87
1138
650
269
1552
908
162
1628
555
-333
855
-1089
-1753
-1010
-187
-1137
-1259
795
-689
-578
294
-642
369
-89
-954
-88
-655
-1631
-785
-1726
-3017
-1877
312
-823
-289
479
-202
509
2385
1829
1939
3196
2162
2141
3851
1923
2627
3097
920
2306
2218
459
1498
-131
-981
-583
-552
-1922
-1475
-619
-1919
-1492
-1152
-2104
-1911
-1686
-2541
-2506
-969
-1462
-1241
-92
-784
-646
509
-896
-1068
1582
158
99
940
-46
-181
784
-633
-520
586
-390
-507
727
-133
137
612
-110
240
-670
-900
-233
-1021
-1493
-119
-995
-2171
-211
-1467
-2180
-433
-1395
-1666
522
-1011
-1128
1718
-667
-857
1723
-1675
-1761
720
-2179
-2386
362
-2127
-2917
-330
-2307
-3132
-169
-2575
-3374
-296
-1358
-2254
491
31
-1488
1297
-706
-1917
1019
-1851
-3112
89
-2051
-2929
440
1839
1028
2832
569
-591
1062
806
-1250
-139
308
-1947
-797
-653
-2774
-1929
-99
-1455
-1805
2500
1054
314
2612
1404
645
1325
388
-73
184
-731
-400
1418
647
1588
2251
1439
2060
3136
2228
3004
2371
1848
2872
1521
1359
2153
1215
882
1723
939
566
1841
-378
-921
862
-775
-1669
-265
-475
-1458
-287
699
-707
-497
815
-516
-246
80
-925
-57
785
-65
230
944
-519
-104
95
-1698
-993
702
-1025
-325
847
-700
-43
1332
143
387
2820
1553
1460
4088
1761
2163
3189
750
1953
1854
-426
802
71
-1899
-1021
10
-2381
-1533
-755
-2570
-1690
-1312
-2342
-2114
-1570
-2245
-2782
-958
-1177
-1503
857
-77
289
1409
-103
8
2439
750
830
2543
1145
1315
1737
222
101
1322
-541
-846
969
-727
-545
258
-1126
-975
113
-831
-997
1579
378
1108
1655
-147
1106
328
-882
312
-495
-1430
221
977
-389
2232
986
68
2814
116
-555
2002
-202
-1365
1089
-546
-1835
299
-1252
-2615
304
-2112
-3525
-430
-1164
-2752
254
335
-1971
691
-675
-2447
488
-1993
-3409
-64
-1969
-3478
123
2229
1179
2684
536
-417
1152
577
-1400
-145
304
-1735
-472
-777
-2338
-1375
445
-976
-1225
2478
1167
340
1533
1149
402
857
408
-81
141
-383
-332
643
184
814
2884
2180
2912
3605
2289
3082
2865
2184
3189
2193
1815
2953
806
117
1068
-27
-223
1212
-350
-1019
549
-813
-1739
-114
657
-517
906
1374
-335
150
1425
-263
407
1613
67
627
2434
1187
1072
2764
937
1201
2962
877
1332
2892
661
899
2338
-131
-8
1423
-762
-638
2228
241
480
3674
1324
2226
3506
1049
2185
1616
-425
1104
1162
-514
549
51
-1722
-1174
-623
-2106
-1279
-1312
-2545
-1715
-516
-1557
-2212
-291
-894
-2155
846
-234
-805
1868
73
-342
3127
901
357
2883
1134
679
2084
561
109
1720
-367
-287
1693
-299
-322
1172
-608
-773
1197
-265
-273
3396
1520
2130
3825
1473
2811
2444
577
1864
1052
-456
1198
2514
577
3033
2710
825
3704
2737
1065
3953
1509
-180
2934
523
-1163
1354
966
-974
2033
-430
-2388
1324
-987
-2762
778
577
-1770
1284
90
-2040
1307
-990
-2801
955
-2175
-4090
1
1712
679
1944
192
-844
610
635
-1130
471
645
-705
909
-729
-1635
-958
-718
-2090
-2427
206
-904
-1605
1046
779
-264
264
224
-656
-468
-579
-1027
467
359
600
2583
2276
2797
3295
2579
3043
2796
2225
2968
1306
1063
2005
212
35
1143
657
235
1746
-27
-51
1112
170
-309
1036
908
344
1536
779
148
709
1632
628
1148
2681
1451
1796
2710
1583
1576
2863
726
786
2706
418
1051
2183
-530
-407
1635
-1558
-1606
1343
-1981
-1657
728
-2237
-1476
2080
-466
467
3229
714
1633
1276
-1122
11
-251
-2001
-1200
-803
-2040
-1370
-1366
-2270
-1344
-1439
-2395
-1615
389
-547
-1068
432
-442
-1823
713
-699
-1650
1229
-1001
-1815
2772
162
-734
1666
-333
-605
1451
-922
-779
1329
-1059
-526
2352
149
128
2300
209
429
2163
120
1094
3525
1045
1952
3630
992
2577
2732
464
2202
1118
-704
1233
1329
-512
1919
2309
318
3038
2296
192
2915
1019
-608
2075
203
-1389
1052
-842
-2434
726
-1123
-2457
1381
-783
-2539
948
461
-1695
1169
983
-890
2198
336
-1280
2425
-1341
-2978
1303
854
-1383
-15
-636
-2502
-1247
-864
-2648
-1328
-361
-1924
-942
-490
-2112
-1175
-274
-2596
-2297
-345
-1805
-2330
453
42
-755
-175
-303
-863
-591
-623
-833
131
247
431
1678
1547
2100
1524
1092
1916
1345
1393
2311
1220
1271
2366
814
1320
2624
1995
1533
3298
646
701
1968
386
228
1607
542
340
1418
414
-71
918
1432
756
1196
2567
1544
1828
1944
847
854
2476
302
680
2415
-59
918
610
-2002
-1336
415
-2196
-2084
1145
-1627
-1481
509
-2178
-1770
1213
-1360
-468
2738
137
1062
1384
-1307
-551
-438
-2571
-2138
-1014
-2441
-2031
-2289
-2976
-2179
-2093
-2846
-2278
-646
-1592
-1521
653
-479
-885
1066
-109
-463
611
-1355
-2316
1502
-508
-1420
832
-1231
-1073
707
-1798
-1187
850
-1318
-533
2039
120
439
1269
-219
405
1045
-548
632
2249
200
1392
2648
587
2307
2015
315
2748
1807
228
2792
1011
-635
1979
1214
-702
2287
1216
-651
2076
623
-1758
846
-550
-2721
12
-896
-2952
135
-1007
-3204
649
118
-2394
1126
1133
-1565
1526
1097
-1318
1882
503
-1470
2378
-850
-2615
1664
-639
-2721
-803
-1475
-3317
-1554
-871
-2381
-1104
239
-1287
137
796
-1495
54
933
-1746
-789
80
-1837
-1774
-510
-1467
-1756
-422
-1186
-1219
-331
-1132
-402
724
301
1151
1487
908
2109
1113
17
1339
469
333
2065
832
687
2600
761
1020
2803
1878
1531
3584
996
609
2698
143
-137
1689
413
205
1744
177
-92
1340
390
-187
274
828
-216
98
488
-541
-22
1219
-666
133
818
-1400
-240
-715
-2705
-1687
-261
-2509
-2233
17
-2267
-2016
-219
-2640
-1871
302
-2132
-978
1684
-1135
199
107
-2742
-1513
-1113
-3701
-2845
-1791
-3514
-2903
-2335
-3225
-2486
-2483
-3159
-2906
-1088
-1789
-1776
43
-1076
-1253
167
-962
-1248
-714
-2022
-2985
376
-1248
-1973
-595
-2349
-1797
-95
-2159
-892
186
-1549
-708
1150
98
799
681
-99
1293
795
-210
1386
2079
139
1701
2114
28
2181
2524
837
3787
2752
1372
4524
1924
460
3551
2372
618
3801
2775
1236
4614
2119
109
2754
1375
-1008
1681
484
-1653
1610
144
-2088
1777
597
-1648
2088
1858
-478
3292
829
-1198
2749
-537
-2250
1903
-984
-2478
2168
